function [y1] = myNeuralNetworkFunction(x1)
%MYNEURALNETWORKFUNCTION neural network simulation function.
%
% Auto-generated by MATLAB, 06-May-2021 23:06:00.
%
% [y1] = myNeuralNetworkFunction(x1) takes these arguments:
%   x = 1xQ matrix, input #1
% and returns:
%   y = 1xQ matrix, output #1
% where Q is the number of samples.

%#ok<*RPMT0>

% ===== NEURAL NETWORK CONSTANTS =====

% Input 1
x1_step1.xoffset = -10;
x1_step1.gain = 0.1;
x1_step1.ymin = -1;

% Layer 1
b1 = [-4.9554802440954794918;-4.1764353047517319695;3.743917251921487388;-3.3392687325695615819;-2.868244171067389825;-2.8797479940162982182;-3.3260946959464745554;3.7261212417737765712;4.147385404904444961;4.9371017183762502256];
IW1_1 = [4.7135001397620470698;5.3308276491539832165;-6.3971215015507949531;8.1031712549590437789;11.241496909932402914;-11.358769730595426495;-8.1235329542446965689;6.3917180950397023409;5.304147680898408268;4.6986851183021993705];

% Layer 2
b2 = 0.00077088815464440585152;
LW2_1 = [0.58894845839409382116 0.17855961244481047268 -0.075370382499736959803 0.029480010991924533031 0.0082802357379334352167 -0.0079599026638099371761 -0.028954289234045509777 0.074478540823433636575 0.17903257868243846462 0.58946089150446734362];

% Output 1
y1_step1.ymin = -1;
y1_step1.gain = 0.001;
y1_step1.xoffset = -1000;

% ===== SIMULATION ========

% Dimensions
Q = size(x1,2); % samples

% Input 1
xp1 = mapminmax_apply(x1,x1_step1);

% Layer 1
a1 = tansig_apply(repmat(b1,1,Q) + IW1_1*xp1);

% Layer 2
a2 = repmat(b2,1,Q) + LW2_1*a1;

% Output 1
y1 = mapminmax_reverse(a2,y1_step1);
end

% ===== MODULE FUNCTIONS ========

% Map Minimum and Maximum Input Processing Function
function y = mapminmax_apply(x,settings)
y = bsxfun(@minus,x,settings.xoffset);
y = bsxfun(@times,y,settings.gain);
y = bsxfun(@plus,y,settings.ymin);
end

% Sigmoid Symmetric Transfer Function
function a = tansig_apply(n,~)
a = 2 ./ (1 + exp(-2*n)) - 1;
end

% Map Minimum and Maximum Output Reverse-Processing Function
function x = mapminmax_reverse(y,settings)
x = bsxfun(@minus,y,settings.ymin);
x = bsxfun(@rdivide,x,settings.gain);
x = bsxfun(@plus,x,settings.xoffset);
end
